{"type":"LSTMTimeStep","options":{"inputSize":1,"hiddenLayers":[8,8],"outputSize":1,"decayRate":0.999,"smoothEps":1e-8,"regc":0.000001,"clipval":5},"hiddenLayers":[{"inputMatrix":{"rows":8,"columns":1,"weights":{"0":-0.053170863538980484,"1":-0.059032898396253586,"2":-0.07001292705535889,"3":0.03090137615799904,"4":0.026277203112840652,"5":-0.0476926825940609,"6":-0.05199138820171356,"7":-0.04725083336234093}},"inputHidden":{"rows":8,"columns":8,"weights":{"0":-0.01593836396932602,"1":-0.03526224195957184,"2":0.0728101059794426,"3":0.013814596459269524,"4":-0.0008436930365860462,"5":0.059777773916721344,"6":-0.025351472198963165,"7":-0.021215325221419334,"8":-0.007413023617118597,"9":0.01770876534283161,"10":0.03721414878964424,"11":0.03218661621212959,"12":0.06266434490680695,"13":-0.008686020039021969,"14":-0.05263281613588333,"15":-0.07650533318519592,"16":-0.027246449142694473,"17":-0.01816616766154766,"18":-0.043564166873693466,"19":-0.01786188781261444,"20":0.037446651607751846,"21":-0.04397574067115784,"22":-0.017368484288454056,"23":-0.07721057534217834,"24":0.06271903961896896,"25":0.006450781598687172,"26":-0.006920406129211187,"27":-0.003673671977594495,"28":-0.03175317868590355,"29":0.0015875381650403142,"30":-0.06653692573308945,"31":0.04756930470466614,"32":-0.026218999177217484,"33":0.04650506377220154,"34":-0.0472252257168293,"35":0.05952717736363411,"36":-0.07296457886695862,"37":0.06652959436178207,"38":0.05799964815378189,"39":-0.037048403173685074,"40":0.07109295576810837,"41":0.042075932025909424,"42":0.04137028008699417,"43":-0.07253433018922806,"44":0.05621759220957756,"45":0.06217791885137558,"46":-0.020624205470085144,"47":0.07264168560504913,"48":-0.03203738108277321,"49":-0.010771488770842552,"50":0.05468926206231117,"51":0.058617085218429565,"52":-0.042749080806970596,"53":0.027654023841023445,"54":-0.008938603103160858,"55":0.005726811941713095,"56":-0.02098490297794342,"57":-0.01586966961622238,"58":-0.026993492618203163,"59":-0.007577188313007355,"60":-0.054556164890527725,"61":-0.0038846260868012905,"62":-0.045387573540210724,"63":-0.014674142934381962}},"inputBias":{"rows":8,"columns":1,"weights":{"0":0,"1":0,"2":0,"3":0,"4":0,"5":0,"6":0,"7":0}},"forgetMatrix":{"rows":8,"columns":1,"weights":{"0":0.05577428638935089,"1":-0.027617955580353737,"2":0.013348069041967392,"3":0.022046782076358795,"4":0.05623992532491684,"5":-0.04659118130803108,"6":-0.03511776402592659,"7":-0.06340329349040985}},"forgetHidden":{"rows":8,"columns":8,"weights":{"0":-0.024437369778752327,"1":0.05458923056721687,"2":-0.0035002692602574825,"3":0.060787003487348557,"4":-0.000993865542113781,"5":-0.004057242069393396,"6":0.0750625804066658,"7":0.07674475759267807,"8":-0.0663372352719307,"9":0.060559213161468506,"10":0.0057776449248194695,"11":-0.009811070747673512,"12":0.007206553593277931,"13":0.033952318131923676,"14":0.0022529256530106068,"15":0.07295558601617813,"16":0.06921348720788956,"17":0.0531834214925766,"18":-0.07380589097738266,"19":0.07255519181489944,"20":-0.06039803847670555,"21":0.06636456400156021,"22":-0.03967755287885666,"23":-0.027675574645400047,"24":-0.0341033861041069,"25":0.0730348601937294,"26":-0.022421646863222122,"27":0.004259826615452766,"28":0.07757782936096191,"29":0.05686069279909134,"30":0.049177322536706924,"31":-0.060252487659454346,"32":0.02690122462809086,"33":-0.01812700368463993,"34":0.024901678785681725,"35":-0.004452038090676069,"36":-0.07542858272790909,"37":0.02427990362048149,"38":-0.06455091387033463,"39":-0.0022077159956097603,"40":0.005801142659038305,"41":-0.07341910898685455,"42":0.01690583862364292,"43":-0.07019660621881485,"44":0.024652455002069473,"45":-0.05754183605313301,"46":0.013975069858133793,"47":-0.04437306895852089,"48":0.055833328515291214,"49":-0.0005872632027603686,"50":0.07126248627901077,"51":-0.07353737205266953,"52":0.0536896176636219,"53":-0.027275536209344864,"54":-0.018437840044498444,"55":0.03255582973361015,"56":0.052598439157009125,"57":-0.05480822175741196,"58":-0.05337962508201599,"59":0.011648373678326607,"60":0.07504742592573166,"61":-0.035287898033857346,"62":-0.06114938110113144,"63":0.059771403670310974}},"forgetBias":{"rows":8,"columns":1,"weights":{"0":0,"1":0,"2":0,"3":0,"4":0,"5":0,"6":0,"7":0}},"outputMatrix":{"rows":8,"columns":1,"weights":{"0":0.06272199004888535,"1":-0.017229432240128517,"2":-0.06123518943786621,"3":-0.04298348352313042,"4":0.054282207041978836,"5":0.05853164196014404,"6":-0.003187648020684719,"7":-0.04713261500000954}},"outputHidden":{"rows":8,"columns":8,"weights":{"0":0.036219608038663864,"1":0.02881268784403801,"2":-0.05718376487493515,"3":-0.06697732955217361,"4":0.02066555619239807,"5":-0.04728944972157478,"6":-0.03323861211538315,"7":-0.04584130644798279,"8":-0.06818282604217529,"9":-0.011796162463724613,"10":0.049740731716156006,"11":0.05318839102983475,"12":-0.06410005688667297,"13":0.03148384392261505,"14":-0.010293746367096901,"15":0.04712819308042526,"16":-0.062290843576192856,"17":-0.07510320842266083,"18":-0.007821779698133469,"19":-0.04674897342920303,"20":0.05504301190376282,"21":0.04473019018769264,"22":-0.03953497111797333,"23":0.0652429386973381,"24":0.008408928290009499,"25":-0.06824643909931183,"26":-0.04049765691161156,"27":0.008011065423488617,"28":-0.046064287424087524,"29":-0.007132844068109989,"30":0.014138782396912575,"31":0.007813949137926102,"32":-0.009014680050313473,"33":0.04941772669553757,"34":-0.07607023417949677,"35":0.06228242069482803,"36":0.01129225641489029,"37":0.03688232600688934,"38":0.07095389068126678,"39":0.06722663342952728,"40":-0.0022594090551137924,"41":-0.05213632807135582,"42":-0.06692003458738327,"43":-0.03513345122337341,"44":-0.060557544231414795,"45":0.03540569916367531,"46":-0.039443109184503555,"47":0.06461230665445328,"48":-0.04767719656229019,"49":0.03757786750793457,"50":0.033719226717948914,"51":-0.03541683405637741,"52":-0.02665916457772255,"53":-0.019492892548441887,"54":-0.007758900988847017,"55":0.04260145127773285,"56":-0.034640248864889145,"57":0.07511006295681,"58":-0.010869788937270641,"59":0.012219053693115711,"60":0.050489410758018494,"61":-0.038324858993291855,"62":0.07105287164449692,"63":0.07427895814180374}},"outputBias":{"rows":8,"columns":1,"weights":{"0":0,"1":0,"2":0,"3":0,"4":0,"5":0,"6":0,"7":0}},"cellActivationMatrix":{"rows":8,"columns":1,"weights":{"0":0.05817749351263046,"1":0.04660491645336151,"2":-0.015168079175055027,"3":-0.019008111208677292,"4":-0.04361811280250549,"5":0.06346926838159561,"6":-0.03795580193400383,"7":-0.05748876929283142}},"cellActivationHidden":{"rows":8,"columns":8,"weights":{"0":0.04535010829567909,"1":0.0697888731956482,"2":0.008823051117360592,"3":0.03456075116991997,"4":-0.01857336051762104,"5":-0.02698538824915886,"6":0.030046550557017326,"7":0.03316422924399376,"8":0.023387892171740532,"9":0.017740467563271523,"10":0.0006263178656809032,"11":-0.03620550036430359,"12":-0.027068020775914192,"13":-0.009007797576487064,"14":0.058272503316402435,"15":0.03652714565396309,"16":0.03703948110342026,"17":0.007580524310469627,"18":-0.05289649963378906,"19":-0.004949417430907488,"20":-0.02113715186715126,"21":-0.042300883680582047,"22":0.06685823202133179,"23":0.0434638187289238,"24":-0.044917065650224686,"25":0.07336754351854324,"26":-0.06062290072441101,"27":-0.04733119532465935,"28":-0.07396026700735092,"29":0.030586546286940575,"30":0.03642531484365463,"31":0.02117917500436306,"32":0.024497615173459053,"33":0.06116962805390358,"34":-0.022097060456871986,"35":-0.006383725441992283,"36":-0.0008365761605091393,"37":-0.06354865431785583,"38":0.06810783594846725,"39":-0.005617370828986168,"40":-0.017036013305187225,"41":0.006074556615203619,"42":0.01199377328157425,"43":0.015309376642107964,"44":-0.03995145857334137,"45":-0.013295913115143776,"46":-0.06742803007364273,"47":0.04023109748959541,"48":0.07363054901361465,"49":-0.030618442222476006,"50":0.049792926758527756,"51":-0.018405508249998093,"52":-0.05338265001773834,"53":-0.02789681777358055,"54":-0.044750671833753586,"55":0.031016362830996513,"56":0.060037266463041306,"57":-0.014530658721923828,"58":-0.07743872702121735,"59":0.000531783967744559,"60":-0.019478632137179375,"61":-0.07693945616483688,"62":-0.03129175677895546,"63":-0.0038637237157672644}},"cellActivationBias":{"rows":8,"columns":1,"weights":{"0":0,"1":0,"2":0,"3":0,"4":0,"5":0,"6":0,"7":0}}},{"inputMatrix":{"rows":8,"columns":8,"weights":{"0":-0.0183697696775198,"1":0.02144019678235054,"2":0.02932698465883732,"3":0.035338375717401505,"4":-3.3234729766845703,"5":-0.024779174476861954,"6":0.002758295275270939,"7":0.025319553911685944,"8":0.012435965240001678,"9":-0.041640348732471466,"10":0.018359657377004623,"11":0.008069444447755814,"12":-3.7231149673461914,"13":0.03248126432299614,"14":-0.015638403594493866,"15":-0.03285757079720497,"16":-0.05448673292994499,"17":-0.044351208955049515,"18":-0.0163890328258276,"19":-0.05290253832936287,"20":-8.187841415405273,"21":0.00028958398615941405,"22":-0.05329839885234833,"23":0.0030838577076792717,"24":0.0681985467672348,"25":-0.0015505068004131317,"26":-0.011868850328028202,"27":0.003249541623517871,"28":-3.8064229488372803,"29":0.022455662488937378,"30":0.005491915158927441,"31":-0.057189349085092545,"32":-0.012853545136749744,"33":-0.04179249331355095,"34":-0.07293687015771866,"35":0.034957148134708405,"36":-4.227195739746094,"37":0.07238297909498215,"38":0.07713809609413147,"39":-0.004057388752698898,"40":-0.04937778413295746,"41":0.018681121990084648,"42":-0.04380657896399498,"43":-0.030391165986657143,"44":-5.830810070037842,"45":-0.03375009447336197,"46":-0.02059684693813324,"47":-0.026349982246756554,"48":-0.004987228196114302,"49":-0.062072109431028366,"50":0.06119011342525482,"51":-0.02294836938381195,"52":-3.8423259258270264,"53":0.06330017000436783,"54":-0.021162398159503937,"55":0.047844283282756805,"56":-0.035451389849185944,"57":0.017462393268942833,"58":0.019465696066617966,"59":0.040052708238363266,"60":-6.1714301109313965,"61":-0.0018715595360845327,"62":0.019553547725081444,"63":0.05465696007013321}},"inputHidden":{"rows":8,"columns":8,"weights":{"0":-2.8210575580596924,"1":1.6353715658187866,"2":-0.11151919513940811,"3":9.076054573059082,"4":-0.35514336824417114,"5":-6.280254364013672,"6":0.4594547748565674,"7":-0.18875350058078766,"8":-2.978170394897461,"9":1.7750728130340576,"10":-0.41557949781417847,"11":10.227437973022461,"12":-0.33479586243629456,"13":-7.773070812225342,"14":0.45024973154067993,"15":-0.3986733555793762,"16":-1.7353013753890991,"17":1.6849788427352905,"18":1.2405617237091064,"19":1.9741846323013306,"20":-1.2245023250579834,"21":-0.8667014241218567,"22":1.5463674068450928,"23":-0.6448148488998413,"24":-2.051687002182007,"25":2.239903450012207,"26":1.160484790802002,"27":2.817495584487915,"28":0.11658604443073273,"29":-1.9326378107070923,"30":-0.20100143551826477,"31":0.08650916069746017,"32":-2.7853989601135254,"33":2.3907999992370605,"34":-1.1652929782867432,"35":2.6555826663970947,"36":-1.4818611145019531,"37":-2.42440128326416,"38":1.6258279085159302,"39":-1.2923728227615356,"40":-2.728694438934326,"41":2.917495012283325,"42":0.27711087465286255,"43":5.54555606842041,"44":-0.6258097887039185,"45":-2.7887468338012695,"46":0.7099365592002869,"47":-0.5049431324005127,"48":-2.8191404342651367,"49":2.7188751697540283,"50":-1.3080283403396606,"51":3.97642183303833,"52":-1.3488608598709106,"53":-3.9072670936584473,"54":1.4067254066467285,"55":-1.2206740379333496,"56":-5.185647964477539,"57":3.2288167476654053,"58":-1.1029906272888184,"59":3.024923086166382,"60":-1.640868902206421,"61":-1.869403600692749,"62":1.8036713600158691,"63":-1.6067603826522827}},"inputBias":{"rows":8,"columns":1,"weights":{"0":14.382247924804688,"1":13.964487075805664,"2":10.268071174621582,"3":12.979354858398438,"4":14.109861373901367,"5":11.148629188537598,"6":14.403120040893555,"7":12.629528045654297}},"forgetMatrix":{"rows":8,"columns":8,"weights":{"0":0.0024393347557634115,"1":0.05244869366288185,"2":0.048728205263614655,"3":0.07223821431398392,"4":-2.2765960693359375,"5":-0.059806350618600845,"6":0.018927576020359993,"7":-0.025962626561522484,"8":-0.061916183680295944,"9":-0.05038702115416527,"10":0.031883418560028076,"11":0.008947912603616714,"12":-1.2520482540130615,"13":-0.074928879737854,"14":-0.07120562344789505,"15":-0.040035370737314224,"16":0.0641668289899826,"17":-0.05879180133342743,"18":-0.06697268784046173,"19":-0.01220659725368023,"20":-1.9938745498657227,"21":0.0378827266395092,"22":0.01987520046532154,"23":-0.012151021510362625,"24":0.04629610851407051,"25":0.07520411908626556,"26":0.0015849812189117074,"27":0.044790662825107574,"28":-3.5191256999969482,"29":0.04637393727898598,"30":0.06012647598981857,"31":-0.06471440196037292,"32":0.05273645743727684,"33":-0.0020079417154192924,"34":0.02551262453198433,"35":0.015794355422258377,"36":-1.6602424383163452,"37":-0.04457000643014908,"38":0.0036885663866996765,"39":0.025483816862106323,"40":0.022735577076673508,"41":0.02735017240047455,"42":-0.025706080719828606,"43":-0.0013128361897543073,"44":-1.8416259288787842,"45":-0.04592257738113403,"46":-0.03628438338637352,"47":-0.05207351967692375,"48":0.014003929682075977,"49":0.05227246880531311,"50":0.011421198956668377,"51":-0.0127360038459301,"52":-1.3109385967254639,"53":-0.021216873079538345,"54":0.046784304082393646,"55":-0.045338235795497894,"56":-0.008436544798314571,"57":0.00727836275473237,"58":-0.043807413429021835,"59":0.028326673433184624,"60":-0.6606532335281372,"61":-0.029128430411219597,"62":-0.013775041326880455,"63":-0.06944108009338379}},"forgetHidden":{"rows":8,"columns":8,"weights":{"0":-4.47216796875,"1":3.968087673187256,"2":-2.2911217212677,"3":9.715991020202637,"4":-1.4314242601394653,"5":-9.00492000579834,"6":1.3327127695083618,"7":-1.6719350814819336,"8":-5.018427848815918,"9":3.493496894836426,"10":-1.0466716289520264,"11":9.68014144897461,"12":-0.5827744603157043,"13":-8.97981071472168,"14":0.4445109963417053,"15":-0.6549848318099976,"16":-2.0129928588867188,"17":2.4165313243865967,"18":3.7892656326293945,"19":2.94913387298584,"20":-2.3569436073303223,"21":-1.4252068996429443,"22":2.3930020332336426,"23":-2.31557035446167,"24":-2.653501272201538,"25":2.901285409927368,"26":-1.6053142547607422,"27":5.877062797546387,"28":-1.754688024520874,"29":-3.4757168292999268,"30":1.5126630067825317,"31":-1.8318825960159302,"32":-4.927307605743408,"33":3.477564811706543,"34":-1.4869346618652344,"35":7.915855884552002,"36":-1.7062287330627441,"37":-8.127012252807617,"38":1.7213540077209473,"39":-1.5726962089538574,"40":-2.4466400146484375,"41":2.4832613468170166,"42":1.2122440338134766,"43":7.547900199890137,"44":-1.2167376279830933,"45":-3.1538591384887695,"46":1.1131905317306519,"47":-1.093091607093811,"48":-3.849926233291626,"49":3.055309295654297,"50":-1.4356410503387451,"51":8.646760940551758,"52":-1.4145981073379517,"53":-9.4568510055542,"54":1.3851821422576904,"55":-1.2121282815933228,"56":-7.810011863708496,"57":4.327160358428955,"58":-0.46504467725753784,"59":8.779004096984863,"60":-1.5075628757476807,"61":-5.666017055511475,"62":1.6768463850021362,"63":-1.36678946018219}},"forgetBias":{"rows":8,"columns":1,"weights":{"0":0,"1":0,"2":0,"3":0,"4":0,"5":0,"6":0,"7":0}},"outputMatrix":{"rows":8,"columns":8,"weights":{"0":-0.0732249841094017,"1":0.02252202294766903,"2":0.07161508500576019,"3":0.0062975832261145115,"4":-1.8822253942489624,"5":-0.05012468248605728,"6":0.045809682458639145,"7":0.06055128574371338,"8":-0.059446241706609726,"9":0.06623345613479614,"10":0.029955103993415833,"11":-0.0300018060952425,"12":-2.224482297897339,"13":-0.06673720479011536,"14":-0.052072491496801376,"15":-0.07331549376249313,"16":-0.013161004520952702,"17":0.07140593230724335,"18":-0.04662465304136276,"19":0.013123826123774052,"20":-7.223123550415039,"21":-0.025879766792058945,"22":-0.0735986977815628,"23":0.01929331198334694,"24":0.0631994754076004,"25":0.04372725635766983,"26":0.06162634491920471,"27":0.029363196343183517,"28":-1.670737862586975,"29":-0.03077310509979725,"30":0.044595155864953995,"31":-0.008331317454576492,"32":-0.009069771505892277,"33":-0.025110838934779167,"34":0.006515872199088335,"35":0.026113275438547134,"36":-2.3424103260040283,"37":0.0661495178937912,"38":0.004224538803100586,"39":0.04662230610847473,"40":-0.06662308424711227,"41":0.04731995239853859,"42":0.028331823647022247,"43":-0.0110261095687747,"44":-4.806044101715088,"45":-0.05850363150238991,"46":-0.01107825804501772,"47":0.0771910697221756,"48":-0.03928157687187195,"49":-0.04408164694905281,"50":-0.025804465636610985,"51":0.017862915992736816,"52":-1.981372356414795,"53":-0.009515956044197083,"54":-0.0009890742367133498,"55":0.06294596195220947,"56":0.0753241628408432,"57":-0.02449796162545681,"58":0.04241929203271866,"59":-0.011010460555553436,"60":-4.189748764038086,"61":-0.01958424597978592,"62":0.06257164478302002,"63":0.05544167757034302}},"outputHidden":{"rows":8,"columns":8,"weights":{"0":-2.0704739093780518,"1":1.328870415687561,"2":0.1276101917028427,"3":6.714966773986816,"4":-0.1381138116121292,"5":-3.7860488891601562,"6":0.31850287318229675,"7":-0.1707390993833542,"8":-1.9743497371673584,"9":1.3163143396377563,"10":-0.19370009005069733,"11":8.352227210998535,"12":-0.37099945545196533,"13":-4.7802839279174805,"14":0.368253231048584,"15":-0.4026380777359009,"16":-1.8130266666412354,"17":2.039055824279785,"18":1.1496762037277222,"19":-1.939725399017334,"20":-1.3309963941574097,"21":0.0781383141875267,"22":1.4338736534118652,"23":-0.9087509512901306,"24":-1.8628767728805542,"25":2.0159826278686523,"26":1.778276801109314,"27":1.4946147203445435,"28":0.4103391468524933,"29":-1.4049959182739258,"30":-0.3453634977340698,"31":0.3771746754646301,"32":-2.779947280883789,"33":1.8395709991455078,"34":-0.8330809473991394,"35":4.739898204803467,"36":-0.9692222476005554,"37":-4.918976783752441,"38":0.9961154460906982,"39":-0.8265768885612488,"40":-2.430262804031372,"41":2.569124698638916,"42":0.7315748929977417,"43":3.6794304847717285,"44":-0.38558417558670044,"45":-2.1302130222320557,"46":0.4966205060482025,"47":-0.45595812797546387,"48":-2.650393486022949,"49":1.2106815576553345,"50":-0.9429763555526733,"51":5.614995956420898,"52":-0.9050846099853516,"53":-5.124514579772949,"54":0.8460770845413208,"55":-0.8490222096443176,"56":-3.373522996902466,"57":2.434939384460449,"58":-0.7208781838417053,"59":5.851455211639404,"60":-1.1651239395141602,"61":-4.823225498199463,"62":1.1995363235473633,"63":-1.0332486629486084}},"outputBias":{"rows":8,"columns":1,"weights":{"0":15.895533561706543,"1":15.635076522827148,"2":11.277609825134277,"3":14.845407485961914,"4":15.545049667358398,"5":12.212018013000488,"6":15.822129249572754,"7":14.140644073486328}},"cellActivationMatrix":{"rows":8,"columns":8,"weights":{"0":0.009827633388340473,"1":-0.06947796791791916,"2":0.06285671144723892,"3":0.07639001309871674,"4":4.361003875732422,"5":0.0014659028965979815,"6":-0.07113194465637207,"7":0.06722860783338547,"8":0.034509822726249695,"9":0.03011997975409031,"10":-0.015323190949857235,"11":0.0646856427192688,"12":-4.364265441894531,"13":0.06872905045747757,"14":0.05826257914304733,"15":-0.05930277332663536,"16":-0.03276662528514862,"17":0.0761212483048439,"18":0.04282311350107193,"19":0.00868985801935196,"20":-4.044363975524902,"21":-0.07495675981044769,"22":-0.07755659520626068,"23":0.035765450447797775,"24":-0.0010216253576800227,"25":0.06957051157951355,"26":0.022823110222816467,"27":-0.04383139684796333,"28":-4.597538471221924,"29":-0.07181243598461151,"30":0.07627639174461365,"31":-0.06981508433818817,"32":-0.024150745943188667,"33":-0.05147791653871536,"34":-0.0154026560485363,"35":0.019727440550923347,"36":4.471323490142822,"37":0.009518180042505264,"38":0.055214773863554,"39":-0.07569278031587601,"40":-0.009582187980413437,"41":0.036012571305036545,"42":-0.011914020404219627,"43":-0.007526020985096693,"44":4.781805038452148,"45":-0.010233293287456036,"46":-0.07218778133392334,"47":0.0690394788980484,"48":0.04772043228149414,"49":-0.045672785490751266,"50":0.05217042937874794,"51":-0.0664283037185669,"52":-4.46308708190918,"53":0.02453494630753994,"54":-0.03642911836504936,"55":-0.04445141181349754,"56":0.0157881248742342,"57":-0.05298450216650963,"58":-0.023621318861842155,"59":0.06262406706809998,"60":4.484055519104004,"61":0.0387679785490036,"62":0.01780765876173973,"63":-0.005751915276050568}},"cellActivationHidden":{"rows":8,"columns":8,"weights":{"0":3.3451287746429443,"1":-2.8174848556518555,"2":0.9349758625030518,"3":-5.007796287536621,"4":1.8958516120910645,"5":3.1979260444641113,"6":-2.0662033557891846,"7":1.7629660367965698,"8":-3.5945470333099365,"9":3.1166486740112305,"10":-1.1549874544143677,"11":5.093428611755371,"12":-2.0366640090942383,"13":-3.403698444366455,"14":2.197316884994507,"15":-1.9878119230270386,"16":-3.4887170791625977,"17":3.317363739013672,"18":0.04425719007849693,"19":4.710200786590576,"20":0.13490180671215057,"21":-2.631725788116455,"22":-0.10152613371610641,"23":0.18533773720264435,"24":-1.7070225477218628,"25":1.9033255577087402,"26":-1.3787834644317627,"27":5.329202175140381,"28":-2.339104652404785,"29":-3.011502265930176,"30":2.37605881690979,"31":-2.25974440574646,"32":2.0828237533569336,"33":-2.975581169128418,"34":0.6854363083839417,"35":-4.906346321105957,"36":1.0361967086791992,"37":3.6072909832000732,"38":-1.0426522493362427,"39":1.1720608472824097,"40":0.5991140007972717,"41":-0.7215847969055176,"42":2.0523054599761963,"43":-4.423742771148682,"44":2.623492479324341,"45":1.8291269540786743,"46":-2.417309522628784,"47":2.715167284011841,"48":-2.628955602645874,"49":1.555705189704895,"50":-0.5071659088134766,"51":6.028711318969727,"52":-0.6118507981300354,"53":-5.288272857666016,"54":0.6214008331298828,"55":-0.6786802411079407,"56":4.128808975219727,"57":-3.109562635421753,"58":0.2565617859363556,"59":-4.620896816253662,"60":0.6365532279014587,"61":1.9270936250686646,"62":-1.1610885858535767,"63":0.21631675958633423}},"cellActivationBias":{"rows":8,"columns":1,"weights":{"0":-4.211418628692627,"1":4.2494635581970215,"2":5.930828094482422,"3":4.334485054016113,"4":-4.91766881942749,"5":-4.854280948638916,"6":4.511135101318359,"7":-4.925614356994629}}}],"outputConnector":{"rows":1,"columns":8,"weights":{"0":-0.11864286661148071,"1":0.09299254417419434,"2":0.0407099649310112,"3":0.1581621915102005,"4":-0.08321131765842438,"5":-0.09339512139558792,"6":0.11381702125072479,"7":-0.06574919074773788}},"output":{"rows":1,"columns":1,"weights":{"0":0.31296831369400024}},"inputLookup":null,"inputLookupLength":null,"outputLookup":null,"outputLookupLength":null}